digraph Tree {
node [shape=box] ;
0 [label="Glucose <= 123.5\nentropy = 0.9407\nsamples = 576\nvalue = [370, 206]"] ;
1 [label="BMI <= 26.45\nentropy = 0.6852\nsamples = 329\nvalue = [269, 60]"] ;
0 -> 1 [labeldistance=2.5, labelangle=45, headlabel="True"] ;
2 [label="DiabetesPedigreeFunction <= 0.6755\nentropy = 0.0865\nsamples = 92\nvalue = [91, 1]"] ;
1 -> 2 ;
3 [label="entropy = 0.0\nsamples = 76\nvalue = [76, 0]"] ;
2 -> 3 ;
4 [label="DiabetesPedigreeFunction <= 0.7055\nentropy = 0.3373\nsamples = 16\nvalue = [15, 1]"] ;
2 -> 4 ;
5 [label="entropy = 0.0\nsamples = 1\nvalue = [0, 1]"] ;
4 -> 5 ;
6 [label="entropy = 0.0\nsamples = 15\nvalue = [15, 0]"] ;
4 -> 6 ;
7 [label="Age <= 28.5\nentropy = 0.8096\nsamples = 237\nvalue = [178, 59]"] ;
1 -> 7 ;
8 [label="BMI <= 30.95\nentropy = 0.5491\nsamples = 126\nvalue = [110, 16]"] ;
7 -> 8 ;
9 [label="Pregnancies <= 7.0\nentropy = 0.1793\nsamples = 37\nvalue = [36, 1]"] ;
8 -> 9 ;
10 [label="entropy = 0.0\nsamples = 36\nvalue = [36, 0]"] ;
9 -> 10 ;
11 [label="entropy = 0.0\nsamples = 1\nvalue = [0, 1]"] ;
9 -> 11 ;
12 [label="BloodPressure <= 53.0\nentropy = 0.6544\nsamples = 89\nvalue = [74, 15]"] ;
8 -> 12 ;
13 [label="DiabetesPedigreeFunction <= 0.508\nentropy = 0.971\nsamples = 5\nvalue = [2, 3]"] ;
12 -> 13 ;
14 [label="entropy = 0.0\nsamples = 3\nvalue = [0, 3]"] ;
13 -> 14 ;
15 [label="entropy = 0.0\nsamples = 2\nvalue = [2, 0]"] ;
13 -> 15 ;
16 [label="DiabetesPedigreeFunction <= 0.5005\nentropy = 0.5917\nsamples = 84\nvalue = [72, 12]"] ;
12 -> 16 ;
17 [label="BloodPressure <= 73.0\nentropy = 0.3809\nsamples = 54\nvalue = [50, 4]"] ;
16 -> 17 ;
18 [label="entropy = 0.0\nsamples = 29\nvalue = [29, 0]"] ;
17 -> 18 ;
19 [label="BMI <= 45.35\nentropy = 0.6343\nsamples = 25\nvalue = [21, 4]"] ;
17 -> 19 ;
20 [label="Insulin <= 36.5\nentropy = 0.5436\nsamples = 24\nvalue = [21, 3]"] ;
19 -> 20 ;
21 [label="Age <= 22.5\nentropy = 0.9183\nsamples = 9\nvalue = [6, 3]"] ;
20 -> 21 ;
22 [label="entropy = 0.0\nsamples = 3\nvalue = [3, 0]"] ;
21 -> 22 ;
23 [label="Age <= 25.5\nentropy = 1.0\nsamples = 6\nvalue = [3, 3]"] ;
21 -> 23 ;
24 [label="entropy = 0.0\nsamples = 3\nvalue = [0, 3]"] ;
23 -> 24 ;
25 [label="entropy = 0.0\nsamples = 3\nvalue = [3, 0]"] ;
23 -> 25 ;
26 [label="entropy = 0.0\nsamples = 15\nvalue = [15, 0]"] ;
20 -> 26 ;
27 [label="entropy = 0.0\nsamples = 1\nvalue = [0, 1]"] ;
19 -> 27 ;
28 [label="BMI <= 38.65\nentropy = 0.8366\nsamples = 30\nvalue = [22, 8]"] ;
16 -> 28 ;
29 [label="BMI <= 32.7\nentropy = 0.9587\nsamples = 21\nvalue = [13, 8]"] ;
28 -> 29 ;
30 [label="entropy = 0.0\nsamples = 7\nvalue = [7, 0]"] ;
29 -> 30 ;
31 [label="BloodPressure <= 61.0\nentropy = 0.9852\nsamples = 14\nvalue = [6, 8]"] ;
29 -> 31 ;
32 [label="entropy = 0.0\nsamples = 2\nvalue = [2, 0]"] ;
31 -> 32 ;
33 [label="BMI <= 34.3\nentropy = 0.9183\nsamples = 12\nvalue = [4, 8]"] ;
31 -> 33 ;
34 [label="entropy = 0.0\nsamples = 4\nvalue = [0, 4]"] ;
33 -> 34 ;
35 [label="BloodPressure <= 63.0\nentropy = 1.0\nsamples = 8\nvalue = [4, 4]"] ;
33 -> 35 ;
36 [label="entropy = 0.0\nsamples = 2\nvalue = [0, 2]"] ;
35 -> 36 ;
37 [label="BMI <= 37.4\nentropy = 0.9183\nsamples = 6\nvalue = [4, 2]"] ;
35 -> 37 ;
38 [label="entropy = 0.0\nsamples = 4\nvalue = [4, 0]"] ;
37 -> 38 ;
39 [label="entropy = 0.0\nsamples = 2\nvalue = [0, 2]"] ;
37 -> 39 ;
40 [label="entropy = 0.0\nsamples = 9\nvalue = [9, 0]"] ;
28 -> 40 ;
41 [label="BMI <= 27.55\nentropy = 0.9631\nsamples = 111\nvalue = [68, 43]"] ;
7 -> 41 ;
42 [label="entropy = 0.0\nsamples = 5\nvalue = [0, 5]"] ;
41 -> 42 ;
43 [label="DiabetesPedigreeFunction <= 0.159\nentropy = 0.9414\nsamples = 106\nvalue = [68, 38]"] ;
41 -> 43 ;
44 [label="entropy = 0.0\nsamples = 9\nvalue = [9, 0]"] ;
43 -> 44 ;
45 [label="Insulin <= 140.0\nentropy = 0.9659\nsamples = 97\nvalue = [59, 38]"] ;
43 -> 45 ;
46 [label="Insulin <= 24.0\nentropy = 0.9224\nsamples = 80\nvalue = [53, 27]"] ;
45 -> 46 ;
47 [label="DiabetesPedigreeFunction <= 1.023\nentropy = 0.9891\nsamples = 57\nvalue = [32, 25]"] ;
46 -> 47 ;
48 [label="Glucose <= 33.5\nentropy = 0.9612\nsamples = 52\nvalue = [32, 20]"] ;
47 -> 48 ;
49 [label="entropy = 0.0\nsamples = 2\nvalue = [0, 2]"] ;
48 -> 49 ;
50 [label="BloodPressure <= 67.0\nentropy = 0.9427\nsamples = 50\nvalue = [32, 18]"] ;
48 -> 50 ;
51 [label="DiabetesPedigreeFunction <= 0.4255\nentropy = 0.9799\nsamples = 12\nvalue = [5, 7]"] ;
50 -> 51 ;
52 [label="entropy = 0.0\nsamples = 6\nvalue = [0, 6]"] ;
51 -> 52 ;
53 [label="Pregnancies <= 6.5\nentropy = 0.65\nsamples = 6\nvalue = [5, 1]"] ;
51 -> 53 ;
54 [label="entropy = 0.0\nsamples = 5\nvalue = [5, 0]"] ;
53 -> 54 ;
55 [label="entropy = 0.0\nsamples = 1\nvalue = [0, 1]"] ;
53 -> 55 ;
56 [label="DiabetesPedigreeFunction <= 0.734\nentropy = 0.868\nsamples = 38\nvalue = [27, 11]"] ;
50 -> 56 ;
57 [label="BloodPressure <= 97.0\nentropy = 0.7455\nsamples = 33\nvalue = [26, 7]"] ;
56 -> 57 ;
58 [label="BloodPressure <= 81.0\nentropy = 0.6962\nsamples = 32\nvalue = [26, 6]"] ;
57 -> 58 ;
59 [label="DiabetesPedigreeFunction <= 0.2545\nentropy = 0.8631\nsamples = 21\nvalue = [15, 6]"] ;
58 -> 59 ;
60 [label="entropy = 0.0\nsamples = 6\nvalue = [6, 0]"] ;
59 -> 60 ;
61 [label="BloodPressure <= 71.0\nentropy = 0.971\nsamples = 15\nvalue = [9, 6]"] ;
59 -> 61 ;
62 [label="entropy = 0.0\nsamples = 4\nvalue = [4, 0]"] ;
61 -> 62 ;
63 [label="DiabetesPedigreeFunction <= 0.38\nentropy = 0.994\nsamples = 11\nvalue = [5, 6]"] ;
61 -> 63 ;
64 [label="Age <= 39.5\nentropy = 0.65\nsamples = 6\nvalue = [1, 5]"] ;
63 -> 64 ;
65 [label="Pregnancies <= 10.0\nentropy = 1.0\nsamples = 2\nvalue = [1, 1]"] ;
64 -> 65 ;
66 [label="entropy = 0.0\nsamples = 1\nvalue = [0, 1]"] ;
65 -> 66 ;
67 [label="entropy = 0.0\nsamples = 1\nvalue = [1, 0]"] ;
65 -> 67 ;
68 [label="entropy = 0.0\nsamples = 4\nvalue = [0, 4]"] ;
64 -> 68 ;
69 [label="BloodPressure <= 73.0\nentropy = 0.7219\nsamples = 5\nvalue = [4, 1]"] ;
63 -> 69 ;
70 [label="entropy = 0.0\nsamples = 1\nvalue = [0, 1]"] ;
69 -> 70 ;
71 [label="entropy = 0.0\nsamples = 4\nvalue = [4, 0]"] ;
69 -> 71 ;
72 [label="entropy = 0.0\nsamples = 11\nvalue = [11, 0]"] ;
58 -> 72 ;
73 [label="entropy = 0.0\nsamples = 1\nvalue = [0, 1]"] ;
57 -> 73 ;
74 [label="BloodPressure <= 90.0\nentropy = 0.7219\nsamples = 5\nvalue = [1, 4]"] ;
56 -> 74 ;
75 [label="entropy = 0.0\nsamples = 4\nvalue = [0, 4]"] ;
74 -> 75 ;
76 [label="entropy = 0.0\nsamples = 1\nvalue = [1, 0]"] ;
74 -> 76 ;
77 [label="entropy = 0.0\nsamples = 5\nvalue = [0, 5]"] ;
47 -> 77 ;
78 [label="BMI <= 28.15\nentropy = 0.4262\nsamples = 23\nvalue = [21, 2]"] ;
46 -> 78 ;
79 [label="entropy = 0.0\nsamples = 1\nvalue = [0, 1]"] ;
78 -> 79 ;
80 [label="Glucose <= 113.0\nentropy = 0.2668\nsamples = 22\nvalue = [21, 1]"] ;
78 -> 80 ;
81 [label="entropy = 0.0\nsamples = 17\nvalue = [17, 0]"] ;
80 -> 81 ;
82 [label="Pregnancies <= 1.5\nentropy = 0.7219\nsamples = 5\nvalue = [4, 1]"] ;
80 -> 82 ;
83 [label="entropy = 0.0\nsamples = 1\nvalue = [0, 1]"] ;
82 -> 83 ;
84 [label="entropy = 0.0\nsamples = 4\nvalue = [4, 0]"] ;
82 -> 84 ;
85 [label="BMI <= 34.15\nentropy = 0.9367\nsamples = 17\nvalue = [6, 11]"] ;
45 -> 85 ;
86 [label="BMI <= 30.95\nentropy = 0.8631\nsamples = 7\nvalue = [5, 2]"] ;
85 -> 86 ;
87 [label="entropy = 0.0\nsamples = 2\nvalue = [0, 2]"] ;
86 -> 87 ;
88 [label="entropy = 0.0\nsamples = 5\nvalue = [5, 0]"] ;
86 -> 88 ;
89 [label="DiabetesPedigreeFunction <= 0.985\nentropy = 0.469\nsamples = 10\nvalue = [1, 9]"] ;
85 -> 89 ;
90 [label="entropy = 0.0\nsamples = 9\nvalue = [0, 9]"] ;
89 -> 90 ;
91 [label="entropy = 0.0\nsamples = 1\nvalue = [1, 0]"] ;
89 -> 91 ;
92 [label="BMI <= 30.05\nentropy = 0.9759\nsamples = 247\nvalue = [101, 146]"] ;
0 -> 92 [labeldistance=2.5, labelangle=-45, headlabel="False"] ;
93 [label="Age <= 26.0\nentropy = 0.8813\nsamples = 70\nvalue = [49, 21]"] ;
92 -> 93 ;
94 [label="entropy = 0.0\nsamples = 19\nvalue = [19, 0]"] ;
93 -> 94 ;
95 [label="Age <= 60.5\nentropy = 0.9774\nsamples = 51\nvalue = [30, 21]"] ;
93 -> 95 ;
96 [label="Glucose <= 151.5\nentropy = 0.9996\nsamples = 43\nvalue = [22, 21]"] ;
95 -> 96 ;
97 [label="BMI <= 29.55\nentropy = 0.9481\nsamples = 30\nvalue = [19, 11]"] ;
96 -> 97 ;
98 [label="BMI <= 27.35\nentropy = 0.995\nsamples = 24\nvalue = [13, 11]"] ;
97 -> 98 ;
99 [label="BloodPressure <= 93.0\nentropy = 0.684\nsamples = 11\nvalue = [9, 2]"] ;
98 -> 99 ;
100 [label="Age <= 59.5\nentropy = 0.469\nsamples = 10\nvalue = [9, 1]"] ;
99 -> 100 ;
101 [label="entropy = 0.0\nsamples = 8\nvalue = [8, 0]"] ;
100 -> 101 ;
102 [label="BloodPressure <= 81.0\nentropy = 1.0\nsamples = 2\nvalue = [1, 1]"] ;
100 -> 102 ;
103 [label="entropy = 0.0\nsamples = 1\nvalue = [0, 1]"] ;
102 -> 103 ;
104 [label="entropy = 0.0\nsamples = 1\nvalue = [1, 0]"] ;
102 -> 104 ;
105 [label="entropy = 0.0\nsamples = 1\nvalue = [0, 1]"] ;
99 -> 105 ;
106 [label="Pregnancies <= 3.5\nentropy = 0.8905\nsamples = 13\nvalue = [4, 9]"] ;
98 -> 106 ;
107 [label="entropy = 0.0\nsamples = 5\nvalue = [0, 5]"] ;
106 -> 107 ;
108 [label="Age <= 42.5\nentropy = 1.0\nsamples = 8\nvalue = [4, 4]"] ;
106 -> 108 ;
109 [label="entropy = 0.0\nsamples = 4\nvalue = [4, 0]"] ;
108 -> 109 ;
110 [label="entropy = 0.0\nsamples = 4\nvalue = [0, 4]"] ;
108 -> 110 ;
111 [label="entropy = 0.0\nsamples = 6\nvalue = [6, 0]"] ;
97 -> 111 ;
112 [label="BMI <= 27.1\nentropy = 0.7793\nsamples = 13\nvalue = [3, 10]"] ;
96 -> 112 ;
113 [label="entropy = 0.0\nsamples = 6\nvalue = [0, 6]"] ;
112 -> 113 ;
114 [label="BMI <= 29.1\nentropy = 0.9852\nsamples = 7\nvalue = [3, 4]"] ;
112 -> 114 ;
115 [label="BloodPressure <= 32.0\nentropy = 0.8113\nsamples = 4\nvalue = [3, 1]"] ;
114 -> 115 ;
116 [label="entropy = 0.0\nsamples = 1\nvalue = [0, 1]"] ;
115 -> 116 ;
117 [label="entropy = 0.0\nsamples = 3\nvalue = [3, 0]"] ;
115 -> 117 ;
118 [label="entropy = 0.0\nsamples = 3\nvalue = [0, 3]"] ;
114 -> 118 ;
119 [label="entropy = 0.0\nsamples = 8\nvalue = [8, 0]"] ;
95 -> 119 ;
120 [label="Glucose <= 157.5\nentropy = 0.8736\nsamples = 177\nvalue = [52, 125]"] ;
92 -> 120 ;
121 [label="Age <= 28.5\nentropy = 0.978\nsamples = 109\nvalue = [45, 64]"] ;
120 -> 121 ;
122 [label="BloodPressure <= 73.0\nentropy = 0.9678\nsamples = 38\nvalue = [23, 15]"] ;
121 -> 122 ;
123 [label="Pregnancies <= 0.5\nentropy = 0.9641\nsamples = 18\nvalue = [7, 11]"] ;
122 -> 123 ;
124 [label="entropy = 0.0\nsamples = 6\nvalue = [0, 6]"] ;
123 -> 124 ;
125 [label="BloodPressure <= 57.0\nentropy = 0.9799\nsamples = 12\nvalue = [7, 5]"] ;
123 -> 125 ;
126 [label="DiabetesPedigreeFunction <= 0.208\nentropy = 0.7219\nsamples = 5\nvalue = [1, 4]"] ;
125 -> 126 ;
127 [label="entropy = 0.0\nsamples = 1\nvalue = [1, 0]"] ;
126 -> 127 ;
128 [label="entropy = 0.0\nsamples = 4\nvalue = [0, 4]"] ;
126 -> 128 ;
129 [label="BMI <= 32.45\nentropy = 0.5917\nsamples = 7\nvalue = [6, 1]"] ;
125 -> 129 ;
130 [label="entropy = 0.0\nsamples = 1\nvalue = [0, 1]"] ;
129 -> 130 ;
131 [label="entropy = 0.0\nsamples = 6\nvalue = [6, 0]"] ;
129 -> 131 ;
132 [label="DiabetesPedigreeFunction <= 0.373\nentropy = 0.7219\nsamples = 20\nvalue = [16, 4]"] ;
122 -> 132 ;
133 [label="DiabetesPedigreeFunction <= 0.312\nentropy = 1.0\nsamples = 8\nvalue = [4, 4]"] ;
132 -> 133 ;
134 [label="entropy = 0.0\nsamples = 4\nvalue = [4, 0]"] ;
133 -> 134 ;
135 [label="entropy = 0.0\nsamples = 4\nvalue = [0, 4]"] ;
133 -> 135 ;
136 [label="entropy = 0.0\nsamples = 12\nvalue = [12, 0]"] ;
132 -> 136 ;
137 [label="DiabetesPedigreeFunction <= 0.4295\nentropy = 0.893\nsamples = 71\nvalue = [22, 49]"] ;
121 -> 137 ;
138 [label="BMI <= 45.55\nentropy = 0.9953\nsamples = 37\nvalue = [17, 20]"] ;
137 -> 138 ;
139 [label="BMI <= 33.05\nentropy = 0.9972\nsamples = 32\nvalue = [17, 15]"] ;
138 -> 139 ;
140 [label="Glucose <= 151.0\nentropy = 0.7642\nsamples = 9\nvalue = [2, 7]"] ;
139 -> 140 ;
141 [label="Age <= 38.0\nentropy = 0.5436\nsamples = 8\nvalue = [1, 7]"] ;
140 -> 141 ;
142 [label="BMI <= 31.65\nentropy = 1.0\nsamples = 2\nvalue = [1, 1]"] ;
141 -> 142 ;
143 [label="entropy = 0.0\nsamples = 1\nvalue = [0, 1]"] ;
142 -> 143 ;
144 [label="entropy = 0.0\nsamples = 1\nvalue = [1, 0]"] ;
142 -> 144 ;
145 [label="entropy = 0.0\nsamples = 6\nvalue = [0, 6]"] ;
141 -> 145 ;
146 [label="entropy = 0.0\nsamples = 1\nvalue = [1, 0]"] ;
140 -> 146 ;
147 [label="Insulin <= 170.0\nentropy = 0.9321\nsamples = 23\nvalue = [15, 8]"] ;
139 -> 147 ;
148 [label="Glucose <= 130.5\nentropy = 0.9819\nsamples = 19\nvalue = [11, 8]"] ;
147 -> 148 ;
149 [label="BMI <= 34.3\nentropy = 0.7642\nsamples = 9\nvalue = [7, 2]"] ;
148 -> 149 ;
150 [label="Age <= 34.5\nentropy = 0.9183\nsamples = 3\nvalue = [1, 2]"] ;
149 -> 150 ;
151 [label="entropy = 0.0\nsamples = 1\nvalue = [1, 0]"] ;
150 -> 151 ;
152 [label="entropy = 0.0\nsamples = 2\nvalue = [0, 2]"] ;
150 -> 152 ;
153 [label="entropy = 0.0\nsamples = 6\nvalue = [6, 0]"] ;
149 -> 153 ;
154 [label="BMI <= 34.05\nentropy = 0.971\nsamples = 10\nvalue = [4, 6]"] ;
148 -> 154 ;
155 [label="entropy = 0.0\nsamples = 2\nvalue = [2, 0]"] ;
154 -> 155 ;
156 [label="DiabetesPedigreeFunction <= 0.249\nentropy = 0.8113\nsamples = 8\nvalue = [2, 6]"] ;
154 -> 156 ;
157 [label="BloodPressure <= 74.0\nentropy = 1.0\nsamples = 4\nvalue = [2, 2]"] ;
156 -> 157 ;
158 [label="entropy = 0.0\nsamples = 2\nvalue = [0, 2]"] ;
157 -> 158 ;
159 [label="entropy = 0.0\nsamples = 2\nvalue = [2, 0]"] ;
157 -> 159 ;
160 [label="entropy = 0.0\nsamples = 4\nvalue = [0, 4]"] ;
156 -> 160 ;
161 [label="entropy = 0.0\nsamples = 4\nvalue = [4, 0]"] ;
147 -> 161 ;
162 [label="entropy = 0.0\nsamples = 5\nvalue = [0, 5]"] ;
138 -> 162 ;
163 [label="Pregnancies <= 7.5\nentropy = 0.6024\nsamples = 34\nvalue = [5, 29]"] ;
137 -> 163 ;
164 [label="Glucose <= 149.0\nentropy = 0.8315\nsamples = 19\nvalue = [5, 14]"] ;
163 -> 164 ;
165 [label="SkinThickness <= 11.5\nentropy = 0.6723\nsamples = 17\nvalue = [3, 14]"] ;
164 -> 165 ;
166 [label="DiabetesPedigreeFunction <= 0.663\nentropy = 0.9544\nsamples = 8\nvalue = [3, 5]"] ;
165 -> 166 ;
167 [label="entropy = 0.0\nsamples = 3\nvalue = [0, 3]"] ;
166 -> 167 ;
168 [label="DiabetesPedigreeFunction <= 0.723\nentropy = 0.971\nsamples = 5\nvalue = [3, 2]"] ;
166 -> 168 ;
169 [label="entropy = 0.0\nsamples = 2\nvalue = [2, 0]"] ;
168 -> 169 ;
170 [label="BMI <= 39.8\nentropy = 0.9183\nsamples = 3\nvalue = [1, 2]"] ;
168 -> 170 ;
171 [label="entropy = 0.0\nsamples = 2\nvalue = [0, 2]"] ;
170 -> 171 ;
172 [label="entropy = 0.0\nsamples = 1\nvalue = [1, 0]"] ;
170 -> 172 ;
173 [label="entropy = 0.0\nsamples = 9\nvalue = [0, 9]"] ;
165 -> 173 ;
174 [label="entropy = 0.0\nsamples = 2\nvalue = [2, 0]"] ;
164 -> 174 ;
175 [label="entropy = 0.0\nsamples = 15\nvalue = [0, 15]"] ;
163 -> 175 ;
176 [label="Insulin <= 125.0\nentropy = 0.4783\nsamples = 68\nvalue = [7, 61]"] ;
120 -> 176 ;
177 [label="BloodPressure <= 93.5\nentropy = 0.1914\nsamples = 34\nvalue = [1, 33]"] ;
176 -> 177 ;
178 [label="entropy = 0.0\nsamples = 31\nvalue = [0, 31]"] ;
177 -> 178 ;
179 [label="BMI <= 34.25\nentropy = 0.9183\nsamples = 3\nvalue = [1, 2]"] ;
177 -> 179 ;
180 [label="entropy = 0.0\nsamples = 1\nvalue = [1, 0]"] ;
179 -> 180 ;
181 [label="entropy = 0.0\nsamples = 2\nvalue = [0, 2]"] ;
179 -> 181 ;
182 [label="BMI <= 45.95\nentropy = 0.6723\nsamples = 34\nvalue = [6, 28]"] ;
176 -> 182 ;
183 [label="SkinThickness <= 18.5\nentropy = 0.5436\nsamples = 32\nvalue = [4, 28]"] ;
182 -> 183 ;
184 [label="Age <= 23.0\nentropy = 0.9183\nsamples = 3\nvalue = [2, 1]"] ;
183 -> 184 ;
185 [label="entropy = 0.0\nsamples = 1\nvalue = [0, 1]"] ;
184 -> 185 ;
186 [label="entropy = 0.0\nsamples = 2\nvalue = [2, 0]"] ;
184 -> 186 ;
187 [label="DiabetesPedigreeFunction <= 2.233\nentropy = 0.3621\nsamples = 29\nvalue = [2, 27]"] ;
183 -> 187 ;
188 [label="Insulin <= 171.5\nentropy = 0.2223\nsamples = 28\nvalue = [1, 27]"] ;
187 -> 188 ;
189 [label="Pregnancies <= 4.5\nentropy = 0.9183\nsamples = 3\nvalue = [1, 2]"] ;
188 -> 189 ;
190 [label="entropy = 0.0\nsamples = 2\nvalue = [0, 2]"] ;
189 -> 190 ;
191 [label="entropy = 0.0\nsamples = 1\nvalue = [1, 0]"] ;
189 -> 191 ;
192 [label="entropy = 0.0\nsamples = 25\nvalue = [0, 25]"] ;
188 -> 192 ;
193 [label="entropy = 0.0\nsamples = 1\nvalue = [1, 0]"] ;
187 -> 193 ;
194 [label="entropy = 0.0\nsamples = 2\nvalue = [2, 0]"] ;
182 -> 194 ;
}