digraph Tree {
node [shape=box] ;
0 [label="Glucose <= 127.5\nentropy = 0.9121\nsamples = 547\nvalue = [368, 179]"] ;
1 [label="BMI <= 26.45\nentropy = 0.6511\nsamples = 353\nvalue = [294, 59]"] ;
0 -> 1 [labeldistance=2.5, labelangle=45, headlabel="True"] ;
2 [label="entropy = 0.0\nsamples = 92\nvalue = [92, 0]"] ;
1 -> 2 ;
3 [label="Age <= 25.5\nentropy = 0.7711\nsamples = 261\nvalue = [202, 59]"] ;
1 -> 3 ;
4 [label="Glucose <= 94.5\nentropy = 0.4365\nsamples = 100\nvalue = [91, 9]"] ;
3 -> 4 ;
5 [label="entropy = 0.0\nsamples = 40\nvalue = [40, 0]"] ;
4 -> 5 ;
6 [label="Insulin <= 40.0\nentropy = 0.6098\nsamples = 60\nvalue = [51, 9]"] ;
4 -> 6 ;
7 [label="BloodPressure <= 55.0\nentropy = 0.9183\nsamples = 18\nvalue = [12, 6]"] ;
6 -> 7 ;
8 [label="entropy = 0.0\nsamples = 2\nvalue = [0, 2]"] ;
7 -> 8 ;
9 [label="BloodPressure <= 82.5\nentropy = 0.8113\nsamples = 16\nvalue = [12, 4]"] ;
7 -> 9 ;
10 [label="Age <= 24.5\nentropy = 0.6194\nsamples = 13\nvalue = [11, 2]"] ;
9 -> 10 ;
11 [label="SkinThickness <= 33.5\nentropy = 0.4138\nsamples = 12\nvalue = [11, 1]"] ;
10 -> 11 ;
12 [label="entropy = 0.0\nsamples = 10\nvalue = [10, 0]"] ;
11 -> 12 ;
13 [label="Pregnancies <= 3.5\nentropy = 1.0\nsamples = 2\nvalue = [1, 1]"] ;
11 -> 13 ;
14 [label="entropy = 0.0\nsamples = 1\nvalue = [0, 1]"] ;
13 -> 14 ;
15 [label="entropy = 0.0\nsamples = 1\nvalue = [1, 0]"] ;
13 -> 15 ;
16 [label="entropy = 0.0\nsamples = 1\nvalue = [0, 1]"] ;
10 -> 16 ;
17 [label="DiabetesPedigreeFunction <= 0.195\nentropy = 0.9183\nsamples = 3\nvalue = [1, 2]"] ;
9 -> 17 ;
18 [label="entropy = 0.0\nsamples = 1\nvalue = [1, 0]"] ;
17 -> 18 ;
19 [label="entropy = 0.0\nsamples = 2\nvalue = [0, 2]"] ;
17 -> 19 ;
20 [label="SkinThickness <= 35.5\nentropy = 0.3712\nsamples = 42\nvalue = [39, 3]"] ;
6 -> 20 ;
21 [label="entropy = 0.0\nsamples = 26\nvalue = [26, 0]"] ;
20 -> 21 ;
22 [label="BMI <= 43.05\nentropy = 0.6962\nsamples = 16\nvalue = [13, 3]"] ;
20 -> 22 ;
23 [label="Pregnancies <= 3.5\nentropy = 0.5665\nsamples = 15\nvalue = [13, 2]"] ;
22 -> 23 ;
24 [label="BMI <= 34.05\nentropy = 0.3712\nsamples = 14\nvalue = [13, 1]"] ;
23 -> 24 ;
25 [label="DiabetesPedigreeFunction <= 0.3855\nentropy = 1.0\nsamples = 2\nvalue = [1, 1]"] ;
24 -> 25 ;
26 [label="entropy = 0.0\nsamples = 1\nvalue = [1, 0]"] ;
25 -> 26 ;
27 [label="entropy = 0.0\nsamples = 1\nvalue = [0, 1]"] ;
25 -> 27 ;
28 [label="entropy = 0.0\nsamples = 12\nvalue = [12, 0]"] ;
24 -> 28 ;
29 [label="entropy = 0.0\nsamples = 1\nvalue = [0, 1]"] ;
23 -> 29 ;
30 [label="entropy = 0.0\nsamples = 1\nvalue = [0, 1]"] ;
22 -> 30 ;
31 [label="DiabetesPedigreeFunction <= 0.806\nentropy = 0.8938\nsamples = 161\nvalue = [111, 50]"] ;
3 -> 31 ;
32 [label="BMI <= 48.2\nentropy = 0.8252\nsamples = 139\nvalue = [103, 36]"] ;
31 -> 32 ;
33 [label="Glucose <= 77.5\nentropy = 0.7994\nsamples = 136\nvalue = [103, 33]"] ;
32 -> 33 ;
34 [label="entropy = 0.0\nsamples = 12\nvalue = [12, 0]"] ;
33 -> 34 ;
35 [label="Age <= 28.5\nentropy = 0.8359\nsamples = 124\nvalue = [91, 33]"] ;
33 -> 35 ;
36 [label="Glucose <= 90.5\nentropy = 0.3809\nsamples = 27\nvalue = [25, 2]"] ;
35 -> 36 ;
37 [label="Age <= 27.5\nentropy = 0.971\nsamples = 5\nvalue = [3, 2]"] ;
36 -> 37 ;
38 [label="entropy = 0.0\nsamples = 2\nvalue = [0, 2]"] ;
37 -> 38 ;
39 [label="entropy = 0.0\nsamples = 3\nvalue = [3, 0]"] ;
37 -> 39 ;
40 [label="entropy = 0.0\nsamples = 22\nvalue = [22, 0]"] ;
36 -> 40 ;
41 [label="Age <= 53.5\nentropy = 0.9039\nsamples = 97\nvalue = [66, 31]"] ;
35 -> 41 ;
42 [label="Glucose <= 94.5\nentropy = 0.9361\nsamples = 88\nvalue = [57, 31]"] ;
41 -> 42 ;
43 [label="Pregnancies <= 9.5\nentropy = 0.3534\nsamples = 15\nvalue = [14, 1]"] ;
42 -> 43 ;
44 [label="entropy = 0.0\nsamples = 13\nvalue = [13, 0]"] ;
43 -> 44 ;
45 [label="Glucose <= 86.0\nentropy = 1.0\nsamples = 2\nvalue = [1, 1]"] ;
43 -> 45 ;
46 [label="entropy = 0.0\nsamples = 1\nvalue = [0, 1]"] ;
45 -> 46 ;
47 [label="entropy = 0.0\nsamples = 1\nvalue = [1, 0]"] ;
45 -> 47 ;
48 [label="DiabetesPedigreeFunction <= 0.159\nentropy = 0.977\nsamples = 73\nvalue = [43, 30]"] ;
42 -> 48 ;
49 [label="entropy = 0.0\nsamples = 7\nvalue = [7, 0]"] ;
48 -> 49 ;
50 [label="BloodPressure <= 85.0\nentropy = 0.994\nsamples = 66\nvalue = [36, 30]"] ;
48 -> 50 ;
51 [label="Insulin <= 27.0\nentropy = 0.9998\nsamples = 55\nvalue = [27, 28]"] ;
50 -> 51 ;
52 [label="Glucose <= 122.5\nentropy = 0.971\nsamples = 35\nvalue = [14, 21]"] ;
51 -> 52 ;
53 [label="Pregnancies <= 3.5\nentropy = 0.9968\nsamples = 30\nvalue = [14, 16]"] ;
52 -> 53 ;
54 [label="entropy = 0.0\nsamples = 4\nvalue = [4, 0]"] ;
53 -> 54 ;
55 [label="Glucose <= 121.0\nentropy = 0.9612\nsamples = 26\nvalue = [10, 16]"] ;
53 -> 55 ;
56 [label="SkinThickness <= 31.0\nentropy = 0.8865\nsamples = 23\nvalue = [7, 16]"] ;
55 -> 56 ;
57 [label="BMI <= 38.25\nentropy = 0.9495\nsamples = 19\nvalue = [7, 12]"] ;
56 -> 57 ;
58 [label="DiabetesPedigreeFunction <= 0.6845\nentropy = 0.874\nsamples = 17\nvalue = [5, 12]"] ;
57 -> 58 ;
59 [label="Glucose <= 111.0\nentropy = 0.8113\nsamples = 16\nvalue = [4, 12]"] ;
58 -> 59 ;
60 [label="Glucose <= 109.0\nentropy = 0.9457\nsamples = 11\nvalue = [4, 7]"] ;
59 -> 60 ;
61 [label="DiabetesPedigreeFunction <= 0.2525\nentropy = 0.8813\nsamples = 10\nvalue = [3, 7]"] ;
60 -> 61 ;
62 [label="Age <= 31.5\nentropy = 0.9183\nsamples = 3\nvalue = [2, 1]"] ;
61 -> 62 ;
63 [label="entropy = 0.0\nsamples = 1\nvalue = [0, 1]"] ;
62 -> 63 ;
64 [label="entropy = 0.0\nsamples = 2\nvalue = [2, 0]"] ;
62 -> 64 ;
65 [label="BloodPressure <= 56.0\nentropy = 0.5917\nsamples = 7\nvalue = [1, 6]"] ;
61 -> 65 ;
66 [label="Glucose <= 103.0\nentropy = 1.0\nsamples = 2\nvalue = [1, 1]"] ;
65 -> 66 ;
67 [label="entropy = 0.0\nsamples = 1\nvalue = [0, 1]"] ;
66 -> 67 ;
68 [label="entropy = 0.0\nsamples = 1\nvalue = [1, 0]"] ;
66 -> 68 ;
69 [label="entropy = 0.0\nsamples = 5\nvalue = [0, 5]"] ;
65 -> 69 ;
70 [label="entropy = 0.0\nsamples = 1\nvalue = [1, 0]"] ;
60 -> 70 ;
71 [label="entropy = 0.0\nsamples = 5\nvalue = [0, 5]"] ;
59 -> 71 ;
72 [label="entropy = 0.0\nsamples = 1\nvalue = [1, 0]"] ;
58 -> 72 ;
73 [label="entropy = 0.0\nsamples = 2\nvalue = [2, 0]"] ;
57 -> 73 ;
74 [label="entropy = 0.0\nsamples = 4\nvalue = [0, 4]"] ;
56 -> 74 ;
75 [label="entropy = 0.0\nsamples = 3\nvalue = [3, 0]"] ;
55 -> 75 ;
76 [label="entropy = 0.0\nsamples = 5\nvalue = [0, 5]"] ;
52 -> 76 ;
77 [label="DiabetesPedigreeFunction <= 0.514\nentropy = 0.9341\nsamples = 20\nvalue = [13, 7]"] ;
51 -> 77 ;
78 [label="DiabetesPedigreeFunction <= 0.2615\nentropy = 0.5917\nsamples = 14\nvalue = [12, 2]"] ;
77 -> 78 ;
79 [label="Insulin <= 135.0\nentropy = 1.0\nsamples = 4\nvalue = [2, 2]"] ;
78 -> 79 ;
80 [label="entropy = 0.0\nsamples = 2\nvalue = [2, 0]"] ;
79 -> 80 ;
81 [label="entropy = 0.0\nsamples = 2\nvalue = [0, 2]"] ;
79 -> 81 ;
82 [label="entropy = 0.0\nsamples = 10\nvalue = [10, 0]"] ;
78 -> 82 ;
83 [label="DiabetesPedigreeFunction <= 0.7275\nentropy = 0.65\nsamples = 6\nvalue = [1, 5]"] ;
77 -> 83 ;
84 [label="entropy = 0.0\nsamples = 5\nvalue = [0, 5]"] ;
83 -> 84 ;
85 [label="entropy = 0.0\nsamples = 1\nvalue = [1, 0]"] ;
83 -> 85 ;
86 [label="SkinThickness <= 12.0\nentropy = 0.684\nsamples = 11\nvalue = [9, 2]"] ;
50 -> 86 ;
87 [label="entropy = 0.0\nsamples = 7\nvalue = [7, 0]"] ;
86 -> 87 ;
88 [label="Pregnancies <= 0.5\nentropy = 1.0\nsamples = 4\nvalue = [2, 2]"] ;
86 -> 88 ;
89 [label="entropy = 0.0\nsamples = 1\nvalue = [1, 0]"] ;
88 -> 89 ;
90 [label="BloodPressure <= 87.0\nentropy = 0.9183\nsamples = 3\nvalue = [1, 2]"] ;
88 -> 90 ;
91 [label="entropy = 0.0\nsamples = 1\nvalue = [1, 0]"] ;
90 -> 91 ;
92 [label="entropy = 0.0\nsamples = 2\nvalue = [0, 2]"] ;
90 -> 92 ;
93 [label="entropy = 0.0\nsamples = 9\nvalue = [9, 0]"] ;
41 -> 93 ;
94 [label="entropy = 0.0\nsamples = 3\nvalue = [0, 3]"] ;
32 -> 94 ;
95 [label="Pregnancies <= 2.5\nentropy = 0.9457\nsamples = 22\nvalue = [8, 14]"] ;
31 -> 95 ;
96 [label="BMI <= 33.55\nentropy = 0.8454\nsamples = 11\nvalue = [8, 3]"] ;
95 -> 96 ;
97 [label="Glucose <= 107.5\nentropy = 0.8113\nsamples = 4\nvalue = [1, 3]"] ;
96 -> 97 ;
98 [label="entropy = 0.0\nsamples = 1\nvalue = [1, 0]"] ;
97 -> 98 ;
99 [label="entropy = 0.0\nsamples = 3\nvalue = [0, 3]"] ;
97 -> 99 ;
100 [label="entropy = 0.0\nsamples = 7\nvalue = [7, 0]"] ;
96 -> 100 ;
101 [label="entropy = 0.0\nsamples = 11\nvalue = [0, 11]"] ;
95 -> 101 ;
102 [label="Glucose <= 157.5\nentropy = 0.9591\nsamples = 194\nvalue = [74, 120]"] ;
0 -> 102 [labeldistance=2.5, labelangle=-45, headlabel="False"] ;
103 [label="BMI <= 30.25\nentropy = 1.0\nsamples = 125\nvalue = [63, 62]"] ;
102 -> 103 ;
104 [label="Pregnancies <= 1.5\nentropy = 0.8296\nsamples = 42\nvalue = [31, 11]"] ;
103 -> 104 ;
105 [label="SkinThickness <= 28.0\nentropy = 0.3912\nsamples = 13\nvalue = [12, 1]"] ;
104 -> 105 ;
106 [label="entropy = 0.0\nsamples = 11\nvalue = [11, 0]"] ;
105 -> 106 ;
107 [label="SkinThickness <= 29.5\nentropy = 1.0\nsamples = 2\nvalue = [1, 1]"] ;
105 -> 107 ;
108 [label="entropy = 0.0\nsamples = 1\nvalue = [0, 1]"] ;
107 -> 108 ;
109 [label="entropy = 0.0\nsamples = 1\nvalue = [1, 0]"] ;
107 -> 109 ;
110 [label="BloodPressure <= 73.0\nentropy = 0.9294\nsamples = 29\nvalue = [19, 10]"] ;
104 -> 110 ;
111 [label="Pregnancies <= 4.5\nentropy = 0.9544\nsamples = 8\nvalue = [3, 5]"] ;
110 -> 111 ;
112 [label="entropy = 0.0\nsamples = 5\nvalue = [0, 5]"] ;
111 -> 112 ;
113 [label="entropy = 0.0\nsamples = 3\nvalue = [3, 0]"] ;
111 -> 113 ;
114 [label="Pregnancies <= 8.0\nentropy = 0.7919\nsamples = 21\nvalue = [16, 5]"] ;
110 -> 114 ;
115 [label="BMI <= 28.2\nentropy = 0.5436\nsamples = 16\nvalue = [14, 2]"] ;
114 -> 115 ;
116 [label="entropy = 0.0\nsamples = 9\nvalue = [9, 0]"] ;
115 -> 116 ;
117 [label="DiabetesPedigreeFunction <= 0.1835\nentropy = 0.8631\nsamples = 7\nvalue = [5, 2]"] ;
115 -> 117 ;
118 [label="entropy = 0.0\nsamples = 1\nvalue = [0, 1]"] ;
117 -> 118 ;
119 [label="BMI <= 28.65\nentropy = 0.65\nsamples = 6\nvalue = [5, 1]"] ;
117 -> 119 ;
120 [label="entropy = 0.0\nsamples = 1\nvalue = [0, 1]"] ;
119 -> 120 ;
121 [label="entropy = 0.0\nsamples = 5\nvalue = [5, 0]"] ;
119 -> 121 ;
122 [label="Age <= 55.0\nentropy = 0.971\nsamples = 5\nvalue = [2, 3]"] ;
114 -> 122 ;
123 [label="entropy = 0.0\nsamples = 3\nvalue = [0, 3]"] ;
122 -> 123 ;
124 [label="entropy = 0.0\nsamples = 2\nvalue = [2, 0]"] ;
122 -> 124 ;
125 [label="DiabetesPedigreeFunction <= 0.421\nentropy = 0.9619\nsamples = 83\nvalue = [32, 51]"] ;
103 -> 125 ;
126 [label="BMI <= 45.55\nentropy = 0.9986\nsamples = 46\nvalue = [24, 22]"] ;
125 -> 126 ;
127 [label="Glucose <= 152.5\nentropy = 0.9852\nsamples = 42\nvalue = [24, 18]"] ;
126 -> 127 ;
128 [label="BloodPressure <= 73.0\nentropy = 0.998\nsamples = 38\nvalue = [20, 18]"] ;
127 -> 128 ;
129 [label="Glucose <= 130.0\nentropy = 0.8631\nsamples = 14\nvalue = [4, 10]"] ;
128 -> 129 ;
130 [label="entropy = 0.0\nsamples = 1\nvalue = [1, 0]"] ;
129 -> 130 ;
131 [label="BMI <= 33.75\nentropy = 0.7793\nsamples = 13\nvalue = [3, 10]"] ;
129 -> 131 ;
132 [label="Age <= 22.5\nentropy = 1.0\nsamples = 6\nvalue = [3, 3]"] ;
131 -> 132 ;
133 [label="entropy = 0.0\nsamples = 2\nvalue = [2, 0]"] ;
132 -> 133 ;
134 [label="BMI <= 33.0\nentropy = 0.8113\nsamples = 4\nvalue = [1, 3]"] ;
132 -> 134 ;
135 [label="entropy = 0.0\nsamples = 3\nvalue = [0, 3]"] ;
134 -> 135 ;
136 [label="entropy = 0.0\nsamples = 1\nvalue = [1, 0]"] ;
134 -> 136 ;
137 [label="entropy = 0.0\nsamples = 7\nvalue = [0, 7]"] ;
131 -> 137 ;
138 [label="BMI <= 31.8\nentropy = 0.9183\nsamples = 24\nvalue = [16, 8]"] ;
128 -> 138 ;
139 [label="entropy = 0.0\nsamples = 2\nvalue = [0, 2]"] ;
138 -> 139 ;
140 [label="DiabetesPedigreeFunction <= 0.2325\nentropy = 0.8454\nsamples = 22\nvalue = [16, 6]"] ;
138 -> 140 ;
141 [label="entropy = 0.0\nsamples = 5\nvalue = [5, 0]"] ;
140 -> 141 ;
142 [label="Age <= 42.0\nentropy = 0.9367\nsamples = 17\nvalue = [11, 6]"] ;
140 -> 142 ;
143 [label="Glucose <= 149.0\nentropy = 0.6194\nsamples = 13\nvalue = [11, 2]"] ;
142 -> 143 ;
144 [label="Pregnancies <= 4.5\nentropy = 0.4138\nsamples = 12\nvalue = [11, 1]"] ;
143 -> 144 ;
145 [label="entropy = 0.0\nsamples = 7\nvalue = [7, 0]"] ;
144 -> 145 ;
146 [label="Pregnancies <= 6.0\nentropy = 0.7219\nsamples = 5\nvalue = [4, 1]"] ;
144 -> 146 ;
147 [label="entropy = 0.0\nsamples = 1\nvalue = [0, 1]"] ;
146 -> 147 ;
148 [label="entropy = 0.0\nsamples = 4\nvalue = [4, 0]"] ;
146 -> 148 ;
149 [label="entropy = 0.0\nsamples = 1\nvalue = [0, 1]"] ;
143 -> 149 ;
150 [label="entropy = 0.0\nsamples = 4\nvalue = [0, 4]"] ;
142 -> 150 ;
151 [label="entropy = 0.0\nsamples = 4\nvalue = [4, 0]"] ;
127 -> 151 ;
152 [label="entropy = 0.0\nsamples = 4\nvalue = [0, 4]"] ;
126 -> 152 ;
153 [label="Age <= 28.5\nentropy = 0.7532\nsamples = 37\nvalue = [8, 29]"] ;
125 -> 153 ;
154 [label="SkinThickness <= 21.0\nentropy = 1.0\nsamples = 14\nvalue = [7, 7]"] ;
153 -> 154 ;
155 [label="entropy = 0.0\nsamples = 4\nvalue = [0, 4]"] ;
154 -> 155 ;
156 [label="DiabetesPedigreeFunction <= 0.432\nentropy = 0.8813\nsamples = 10\nvalue = [7, 3]"] ;
154 -> 156 ;
157 [label="entropy = 0.0\nsamples = 2\nvalue = [0, 2]"] ;
156 -> 157 ;
158 [label="SkinThickness <= 43.5\nentropy = 0.5436\nsamples = 8\nvalue = [7, 1]"] ;
156 -> 158 ;
159 [label="entropy = 0.0\nsamples = 7\nvalue = [7, 0]"] ;
158 -> 159 ;
160 [label="entropy = 0.0\nsamples = 1\nvalue = [0, 1]"] ;
158 -> 160 ;
161 [label="Pregnancies <= 12.5\nentropy = 0.258\nsamples = 23\nvalue = [1, 22]"] ;
153 -> 161 ;
162 [label="entropy = 0.0\nsamples = 21\nvalue = [0, 21]"] ;
161 -> 162 ;
163 [label="BloodPressure <= 44.0\nentropy = 1.0\nsamples = 2\nvalue = [1, 1]"] ;
161 -> 163 ;
164 [label="entropy = 0.0\nsamples = 1\nvalue = [0, 1]"] ;
163 -> 164 ;
165 [label="entropy = 0.0\nsamples = 1\nvalue = [1, 0]"] ;
163 -> 165 ;
166 [label="BMI <= 29.85\nentropy = 0.6329\nsamples = 69\nvalue = [11, 58]"] ;
102 -> 166 ;
167 [label="Age <= 61.0\nentropy = 0.9852\nsamples = 14\nvalue = [6, 8]"] ;
166 -> 167 ;
168 [label="BloodPressure <= 81.0\nentropy = 0.8454\nsamples = 11\nvalue = [3, 8]"] ;
167 -> 168 ;
169 [label="entropy = 0.0\nsamples = 8\nvalue = [0, 8]"] ;
168 -> 169 ;
170 [label="entropy = 0.0\nsamples = 3\nvalue = [3, 0]"] ;
168 -> 170 ;
171 [label="entropy = 0.0\nsamples = 3\nvalue = [3, 0]"] ;
167 -> 171 ;
172 [label="BMI <= 46.1\nentropy = 0.4395\nsamples = 55\nvalue = [5, 50]"] ;
166 -> 172 ;
173 [label="BloodPressure <= 71.0\nentropy = 0.3228\nsamples = 51\nvalue = [3, 48]"] ;
172 -> 173 ;
174 [label="SkinThickness <= 28.0\nentropy = 0.6723\nsamples = 17\nvalue = [3, 14]"] ;
173 -> 174 ;
175 [label="BMI <= 33.25\nentropy = 0.9183\nsamples = 9\nvalue = [3, 6]"] ;
174 -> 175 ;
176 [label="entropy = 0.0\nsamples = 5\nvalue = [0, 5]"] ;
175 -> 176 ;
177 [label="Glucose <= 183.5\nentropy = 0.8113\nsamples = 4\nvalue = [3, 1]"] ;
175 -> 177 ;
178 [label="entropy = 0.0\nsamples = 3\nvalue = [3, 0]"] ;
177 -> 178 ;
179 [label="entropy = 0.0\nsamples = 1\nvalue = [0, 1]"] ;
177 -> 179 ;
180 [label="entropy = 0.0\nsamples = 8\nvalue = [0, 8]"] ;
174 -> 180 ;
181 [label="entropy = 0.0\nsamples = 34\nvalue = [0, 34]"] ;
173 -> 181 ;
182 [label="BMI <= 48.75\nentropy = 1.0\nsamples = 4\nvalue = [2, 2]"] ;
172 -> 182 ;
183 [label="entropy = 0.0\nsamples = 2\nvalue = [2, 0]"] ;
182 -> 183 ;
184 [label="entropy = 0.0\nsamples = 2\nvalue = [0, 2]"] ;
182 -> 184 ;
}